svm_type epsilon_svr
kernel_type polynomial
degree 2
gamma 0.333333
coef0 0
nr_class 2
total_sv 394
rho -1.03036e+15
SV
-1 1:9516 2:6 3:209754.5 
-1 1:9505 2:30 3:249466 
1 1:14041.5 2:7 3:562154.5 
1 1:10579 2:13 3:958910 
1 1:4247.5 2:20 3:215249 
-1 1:12979.5 2:6 3:245252.5 
-1 1:11829 2:8 3:1048059.5 
-1 1:4414.5 2:80 3:325076.5 
0.8932547866952119 1:8172 2:10 3:405884 
-1 1:7579 2:6 3:137931 
-1 1:17794 2:10 3:341235.5 
1 1:8449 2:2 3:75957 
1 1:12967.5 2:10 3:593276.5 
-1 1:9514 2:13 3:175963 
-1 1:13354.5 2:6 3:1191104 
-1 1:13222 2:13 3:302222.5 
1 1:7847 2:7 3:836265 
1 1:9375.5 2:6 3:160565 
1 1:9208 2:6 3:225546 
-1 1:13890 2:15 3:370089 
-1 1:15134.5 2:6 3:355235 
-1 1:4224 2:5 3:213663.5 
1 1:8454 2:10 3:154769 
-1 1:8458 2:3 3:80290 
1 1:13460 2:15 3:231460 
1 1:9375 2:15 3:225244 
1 1:3623 2:40 3:303122 
-1 1:16874.5 2:5 3:674263 
-1 1:9061 2:7 3:233556 
-1 1:8142 2:7 3:2405340 
1 1:4233 2:80 3:365681 
1 1:4833.5 2:80 3:323528.5 
-1 1:8153 2:3 3:83354 
1 1:17527 2:3 3:214067 
1 1:4228 2:60 3:246950 
-1 1:13133.5 2:10 3:212662.5 
1 1:12365 2:8 3:395281 
1 1:8774 2:1 3:108972 
-1 1:4170 2:26 3:465268 
-1 1:8142 2:6 3:342216 
-1 1:6643 2:5 3:234069.5 
1 1:9052 2:15 3:319590 
1 1:3627.5 2:13 3:125496.5 
1 1:12972 2:13 3:344271.5 
1 1:17252.5 2:10 3:962469.5 
-1 1:8143 2:3 3:100588.5 
1 1:3624 2:10 3:814795 
-1 1:7549 2:15 3:465124 
-1 1:3744 2:10 3:149546 
1 1:4225.5 2:40 3:183276 
1 1:4231 2:80 3:462897.5 
-1 1:3929 2:10 3:126595 
-1 1:4851.5 2:20 3:355151.5 
-1 1:3629.5 2:20 3:276196 
-1 1:3829.5 2:20 3:755904.5 
1 1:14644 2:5 3:291927 
1 1:9062 2:10 3:2478996 
1 1:12352 2:15 3:233208.5 
-1 1:3630 2:20 3:406945 
-1 1:3846 2:13 3:238113.5 
-1 1:3463 2:13 3:849783 
1 1:4229.5 2:20 3:81654 
-1 1:12713 2:6 3:417777.5 
1 1:9074 2:10 3:88803 
-1 1:7238 2:10 3:337560 
1 1:16594 2:10 3:240858 
-1 1:8745 2:15 3:1431373 
1 1:8390.5 2:20 3:187948 
1 1:14795.5 2:15 3:294390 
1 1:4533 2:6 3:83965 
-1 1:7859.5 2:5 3:481623.5 
-1 1:9075 2:1 3:68636 
1 1:11776.5 2:10 3:208072 
-1 1:9140 2:20 3:600628 
1 1:8754.5 2:5 3:179430 
1 1:10559 2:26 3:857566.5 
1 1:8792 2:15 3:260004 
1 1:6978 2:1 3:107789 
-1 1:8166 2:13 3:357439 
1 1:4543 2:26 3:328595 
-1 1:13444 2:15 3:249207 
-1 1:7885 2:6 3:563551 
-1 1:8906 2:10 3:573200 
1 1:7858 2:5 3:116976 
-1 1:9265 2:1 3:74628 
-1 1:3627 2:5 3:412550 
1 1:10589.5 2:6 3:2191656 
-1 1:5148 2:20 3:335807.5 
1 1:7567 2:10 3:173468.5 
1 1:3928 2:13 3:198383 
-1 1:13293 2:7 3:324536.5 
1 1:10480 2:10 3:229137 
-1 1:4569.5 2:60 3:340950 
1 1:4530.5 2:20 3:422341.5 
-1 1:12983.5 2:5 3:326457.5 
-1 1:7869 2:10 3:94134 
1 1:7564 2:2 3:62962 
-1 1:13306.5 2:10 3:220262 
-1 1:17231 2:6 3:302717.5 
1 1:3926.5 2:30 3:1207065 
1 1:8156 2:10 3:209938 
-1 1:11622 2:15 3:318253 
-1 1:3924.5 2:13 3:465787.5 
-1 1:9070 2:3 3:113549 
1 1:6684.5 2:5 3:175581 
1 1:12726.5 2:10 3:439391 
-1 1:3633.5 2:20 3:610664 
1 1:12694 2:6 3:352620 
1 1:4231.5 2:40 3:302768 
1 1:4232.5 2:60 3:237765 
1 1:9069 2:3 3:173468 
-1 1:10590 2:13 3:362374 
-1 1:11208 2:6 3:422144 
-1 1:7541.5 2:10 3:448349 
1 1:3633 2:20 3:209697.5 
1 1:17861 2:10 3:344289.5 
-1 1:12888 2:6 3:378863 
-1 1:3636 2:20 3:148722 
-1 1:4030 2:20 3:158452.5 
1 1:8745 2:1 3:65209 
-1 1:3925 2:80 3:346822 
-1 1:9673 2:3 3:233381.5 
-1 1:8798.5 2:10 3:168480.5 
1 1:8468 2:10 3:655429 
1 1:13004.5 2:10 3:1349729 
-1 1:10248 2:10 3:251202 
-1 1:3929 2:20 3:153635 
-1 1:7543 2:2 3:178206.5 
-1 1:3634 2:30 3:273071 
1 1:8153 2:5 3:150091 
1 1:7866.5 2:6 3:263678 
1 1:6635 2:10 3:172178.5 
1 1:12998 2:6 3:345908 
1 1:15082 2:10 3:233897 
-1 1:15991 2:2 3:134167 
-1 1:17828 2:3 3:180360 
1 1:12393.5 2:10 3:1802389 
1 1:3757.5 2:80 3:298241 
-1 1:6646 2:1 3:80979 
-1 1:17193 2:6 3:997074.5 
1 1:8155 2:1 3:207690 
1 1:7846 2:1 3:122171 
-1 1:13317.5 2:6 3:722411 
1 1:4231 2:15 3:254442 
1 1:8152 2:13 3:301656 
1 1:9066 2:10 3:290922 
-1 1:7863 2:30 3:367337 
1 1:9654.5 2:13 3:875503.5 
-1 1:4230 2:13 3:173420 
1 1:8464 2:2 3:78509 
-1 1:9392 2:7 3:273006.5 
-1 1:3644 2:15 3:382765 
-1 1:7852 2:15 3:334164 
1 1:7562 2:10 3:73688 
-1 1:4227 2:26 3:351916 
-1 1:14200 2:3 3:250273.5 
1 1:9480 2:4 3:160905 
1 1:9359 2:5 3:210319 
-1 1:15718 2:10 3:137204.5 
-1 1:12678.5 2:10 3:328229 
1 1:7575 2:5 3:344070 
-1 1:8762 2:13 3:413093 
-1 1:12684 2:13 3:425511 
-1 1:9209 2:3 3:320346 
1 1:16004 2:10 3:698797 
-1 1:13597 2:7 3:235714 
-1 1:9817.5 2:4 3:1144300 
1 1:8150 2:2 3:73727.5 
1 1:4645.5 2:10 3:91771 
1 1:7266 2:2 3:62176.5 
1 1:13282 2:20 3:207289 
1 1:11161.5 2:5 3:450898 
-1 1:8754 2:3 3:273923 
1 1:3928 2:10 3:154160 
1 1:3923.5 2:10 3:95204 
1 1:7550 2:5 3:72041 
1 1:3928 2:20 3:79056 
1 1:13443.5 2:10 3:1185997 
1 1:13122.5 2:3 3:238713 
-1 1:8442 2:3 3:335779 
1 1:6652 2:2 3:110230.5 
1 1:8467 2:5 3:75233 
1 1:8049.5 2:5 3:146682 
-1 1:4535 2:40 3:458380.5 
-1 1:13598.5 2:3 3:1118259 
-1 1:3933.5 2:40 3:356331.5 
-1 1:8762 2:40 3:309000.5 
1 1:3831.5 2:6 3:71888 
1 1:9863 2:7 3:209532 
-1 1:3927.5 2:20 3:266610 
-1 1:3628.5 2:10 3:111980 
-1 1:7544 2:5 3:73071 
1 1:3935 2:15 3:229800 
-1 1:12046 2:5 3:642777.5 
-1 1:9608.5 2:6 3:237006.5 
-1 1:8167.5 2:5 3:206455.5 
1 1:19052 2:6 3:314963.5 
-1 1:8754 2:3 3:77132 
1 1:3949 2:40 3:306909 
-1 1:8473 2:2 3:68380 
1 1:13885 2:10 3:257876 
1 1:7859 2:1 3:118196 
-1 1:3929 2:20 3:216656 
-1 1:9369.5 2:3 3:827040 
1 1:8978 2:2 3:88125 
-1 1:8458.5 2:6 3:412723.5 
-1 1:3622 2:60 3:1785082 
1 1:8749 2:10 3:300511 
1 1:8147 2:10 3:257767 
1 1:9710.5 2:40 3:364106.5 
-1 1:15394 2:20 3:297551 
1 1:7857 2:2 3:217282 
1 1:9356.5 2:10 3:172805 
-1 1:3926 2:20 3:140657 
-1 1:11783.5 2:10 3:585585.5 
1 1:7577 2:6 3:148180 
1 1:4253 2:20 3:92115 
1 1:11440 2:5 3:193208 
1 1:8451 2:3 3:66487 
1 1:15742 2:5 3:337955 
-1 1:3628 2:40 3:656690 
1 1:18095 2:6 3:446059.5 
-1 1:4386 2:20 3:156157 
1 1:3626 2:40 3:241425 
1 1:8615 2:6 3:228047.5 
1 1:11773 2:13 3:1149505 
-1 1:13590 2:15 3:273095 
1 1:8151 2:5 3:64387 
-1 1:8912 2:7 3:213001 
-1 1:3631.5 2:5 3:99889 
1 1:3926.5 2:5 3:116443.5 
-1 1:13892 2:5 3:441311 
1 1:15499 2:5 3:288217 
-1 1:3624 2:60 3:1505172 
1 1:7385 2:6 3:67824.5 
1 1:10267.5 2:13 3:344892 
1 1:6939 2:1 3:340553 
-1 1:14086 2:5 3:230198 
-1 1:8161.5 2:40 3:662442 
-1 1:4575.5 2:10 3:154277 
-1 1:9963.5 2:13 3:847386 
1 1:4236 2:26 3:443907 
-1 1:3926 2:80 3:876397 
1 1:7549 2:5 3:67365 
1 1:13053 2:5 3:227197 
-1 1:12410 2:26 3:457520 
-1 1:19599 2:20 3:325767 
-1 1:12674 2:6 3:394967 
1 1:8769 2:10 3:624207.5 
1 1:18708.5 2:6 3:289914.5 
-1 1:4246.5 2:20 3:577926 
-1 1:11488 2:13 3:347031.5 
1 1:12686 2:6 3:441054 
1 1:8779.5 2:6 3:150008 
-1 1:7275 2:2 3:381626 
1 1:18554 2:10 3:142337 
1 1:10569.5 2:5 3:1174420 
0.3699428467363273 1:13008 2:20 3:721675.5 
-1 1:7554 2:10 3:387651 
-0.2631976334316365 1:18420 2:20 3:575013 
1 1:4221.5 2:60 3:342294.5 
-1 1:4523.5 2:13 3:801390 
-1 1:4233 2:30 3:430615 
-1 1:9350 2:15 3:1940524 
1 1:3635.5 2:20 3:97384.5 
1 1:11167 2:13 3:1060103.5 
-1 1:9067 2:13 3:144260 
1 1:9679 2:6 3:177318 
-1 1:8346.5 2:6 3:133217 
1 1:3632.5 2:60 3:235242 
-1 1:9090.5 2:20 3:1050925.5 
-1 1:8768 2:30 3:337708.5 
1 1:10258 2:4 3:163715 
-1 1:12089 2:8 3:345682 
-1 1:7854.5 2:20 3:375718 
-1 1:8769 2:7 3:314255 
1 1:15108 2:6 3:319747.5 
-1 1:12977 2:8 3:430424.5 
1 1:4228.5 2:60 3:1618627 
-1 1:8156 2:2 3:79478 
-1 1:8455 2:10 3:196463 
-1 1:4511 2:13 3:185843 
-1 1:12985 2:3 3:550717 
1 1:3922 2:40 3:888490 
1 1:4236 2:26 3:819649 
-1 1:14492.5 2:15 3:302849 
-1 1:3631 2:20 3:77797.5 
1 1:4231 2:10 3:801934 
-1 1:14190 2:5 3:230358.5 
1 1:8776 2:10 3:259850.5 
-1 1:4473.5 2:20 3:196504 
-1 1:3920.5 2:30 3:1338842 
1 1:8165 2:3 3:100298 
1 1:8906.5 2:6 3:728130 
-1 1:9650 2:13 3:591907 
1 1:8750.5 2:10 3:161867.5 
-1 1:9061 2:6 3:163674 
1 1:7240 2:2 3:122485 
-1 1:4533 2:5 3:434364 
-1 1:4533 2:10 3:167130 
1 1:4238 2:5 3:369722 
-1 1:12524.5 2:6 3:215868 
-1 1:16282 2:3 3:340254 
-1 1:8469 2:2 3:68758 
1 1:8924 2:4 3:285316 
1 1:14972 2:7 3:209475.5 
1 1:8414.5 2:40 3:436203.5 
-1 1:14341.5 2:7 3:213669 
1 1:11470 2:15 3:310812 
-1 1:9355 2:30 3:209207.5 
1 1:14480 2:3 3:380395 
-1 1:12543 2:15 3:264229 
1 1:3944 2:13 3:146057.5 
1 1:9075.5 2:5 3:309108 
1 1:14485.5 2:7 3:338361 
1 1:3926 2:6 3:107838.5 
1 1:12919 2:10 3:1181838 
-1 1:9513 2:6 3:161402 
-1 1:4537 2:40 3:483203 
-1 1:8765 2:30 3:340886.5 
1 1:9065 2:10 3:77446.5 
1 1:3955.5 2:30 3:332280 
1 1:7272 2:6 3:66470 
1 1:7552 2:15 3:415626 
1 1:12666 2:5 3:318182 
-1 1:8727 2:1 3:339966 
1 1:13276.5 2:6 3:423291 
1 1:6944 2:2 3:134080 
-1 1:8474 2:6 3:194517 
-1 1:3931 2:15 3:1217242 
1 1:12977.5 2:5 3:694460.5 
-1 1:4832.5 2:80 3:385538 
1 1:9353.5 2:10 3:461183.5 
1 1:19105.5 2:10 3:304219 
-1 1:12553.5 2:15 3:256031.5 
1 1:3628 2:5 3:79052 
1 1:15379 2:20 3:415090.5 
1 1:4234 2:13 3:884139 
1 1:4227 2:20 3:382100 
1 1:14187.5 2:6 3:238450 
1 1:6997 2:15 3:267799 
-1 1:7876 2:1 3:68611.5 
-1 1:4229.5 2:20 3:597956 
1 1:3621 2:20 3:1370226 
1 1:7544 2:13 3:415928 
-1 1:4226 2:40 3:140657 
1 1:7036 2:6 3:468953.5 
-1 1:8165 2:10 3:285206.5 
1 1:11475 2:3 3:1136951 
1 1:8170 2:1 3:184919 
-1 1:13155 2:5 3:229840.5 
-1 1:4247 2:30 3:275815 
-1 1:8780.5 2:10 3:368733 
1 1:18100 2:5 3:348349.5 
-1 1:4251.5 2:13 3:169724 
1 1:8468 2:2 3:107331 
-1 1:15873 2:6 3:370636 
-1 1:8145 2:2 3:340058 
1 1:4233 2:10 3:153632.5 
-1 1:11418.5 2:7 3:403718 
-1 1:7845 2:5 3:443184.5 
1 1:11476 2:26 3:420961 
1 1:8391 2:10 3:793363 
1 1:14223 2:6 3:223173.5 
-1 1:9509 2:13 3:154616 
-1 1:8775 2:2 3:334752 
1 1:7464 2:2 3:188379 
-1 1:3932 2:5 3:196224.5 
-1 1:13889.5 2:10 3:239485 
-1 1:3625 2:20 3:964861 
-1 1:8464 2:5 3:67338.5 
1 1:3632 2:40 3:156549.5 
1 1:11465 2:8 3:407104 
-1 1:11984 2:13 3:344819.5 
1 1:8460 2:2 3:67025.5 
1 1:8169 2:5 3:80569 
1 1:3626 2:40 3:312732 
-1 1:12073 2:6 3:304030 
-1 1:7857 2:1 3:79750 
-1 1:3925 2:10 3:124794.5 
-1 1:18734.5 2:6 3:526158 
1 1:8506 2:6 3:143448 
-1 1:14211 2:15 3:233813 
-1 1:3624 2:40 3:781483 
1 1:7557 2:1 3:223382.5 
1 1:8146.5 2:40 3:710115 
-1 1:3922.5 2:10 3:416037 
1 1:7242 2:1 3:201851.5 
-1 1:10558 2:26 3:600118 
-1 1:13037 2:10 3:229229 
-1 1:13092.5 2:15 3:231087 
1 1:8064 2:10 3:68511 
-1 1:18047 2:3 3:162191 
-1 1:9363 2:13 3:365736 
